<?xml version="1.0"?>
<opencv_storage>
<stage12>
  <maxWeakCount>10</maxWeakCount>
  <stageThreshold>-7.9809701442718506e-01</stageThreshold>
  <weakClassifiers>
    <_>
      <internalNodes>
        0 -1 47229 4.0586577961221337e-04</internalNodes>
      <leafValues>
        5.3675305843353271e-01 -4.2239686846733093e-01</leafValues></_>
    <_>
      <internalNodes>
        0 -1 33137 7.2556603699922562e-03</internalNodes>
      <leafValues>
        -2.3982021212577820e-01 6.2446463108062744e-01</leafValues></_>
    <_>
      <internalNodes>
        0 -1 45460 -2.1747502614744008e-04</internalNodes>
      <leafValues>
        -8.6390048265457153e-01 2.0986871421337128e-01</leafValues></_>
    <_>
      <internalNodes>
        0 -1 49935 7.2118535172194242e-04</internalNodes>
      <leafValues>
        -5.4244160652160645e-01 2.7880600094795227e-01</leafValues></_>
    <_>
      <internalNodes>
        0 -1 38083 -1.8756233621388674e-03</internalNodes>
      <leafValues>
        -8.1870239973068237e-01 1.8254791200160980e-01</leafValues></_>
    <_>
      <internalNodes>
        0 -1 26088 1.0408134199678898e-02</internalNodes>
      <leafValues>
        -3.0209481716156006e-01 5.7374978065490723e-01</leafValues></_>
    <_>
      <internalNodes>
        0 -1 34994 -3.5293153487145901e-03</internalNodes>
      <leafValues>
        1.8763884902000427e-01 -7.7766722440719604e-01</leafValues></_>
    <_>
      <internalNodes>
        0 -1 44803 4.7745832125656307e-04</internalNodes>
      <leafValues>
        -3.1337365508079529e-01 4.2019096016883850e-01</leafValues></_>
    <_>
      <internalNodes>
        0 -1 41094 -8.6208165157586336e-05</internalNodes>
      <leafValues>
        2.4653948843479156e-01 -6.1769753694534302e-01</leafValues></_>
    <_>
      <internalNodes>
        0 -1 46280 -2.1219454705715179e-02</internalNodes>
      <leafValues>
        3.5304388403892517e-01 -4.2719310522079468e-01</leafValues></_></weakClassifiers></stage12>
</opencv_storage>
