<?xml version="1.0"?>
<opencv_storage>
<stage2>
  <maxWeakCount>5</maxWeakCount>
  <stageThreshold>-4.7817283868789673e-01</stageThreshold>
  <weakClassifiers>
    <_>
      <internalNodes>
        0 -1 40871 7.2019302751868963e-04</internalNodes>
      <leafValues>
        6.1190962791442871e-01 -8.6725664138793945e-01</leafValues></_>
    <_>
      <internalNodes>
        0 -1 40871 -6.9858145434409380e-04</internalNodes>
      <leafValues>
        -9.9282330274581909e-01 3.7111854553222656e-01</leafValues></_>
    <_>
      <internalNodes>
        0 -1 36627 -8.5551589727401733e-03</internalNodes>
      <leafValues>
        5.5067163705825806e-01 -6.0063636302947998e-01</leafValues></_>
    <_>
      <internalNodes>
        0 -1 45095 2.5227788137272000e-04</internalNodes>
      <leafValues>
        -9.4103848934173584e-01 3.0867514014244080e-01</leafValues></_>
    <_>
      <internalNodes>
        0 -1 40874 -2.3329940449912101e-04</internalNodes>
      <leafValues>
        3.0992650985717773e-01 -9.1681426763534546e-01</leafValues></_></weakClassifiers></stage2>
</opencv_storage>
