<?xml version="1.0"?>
<opencv_storage>
<stage14>
  <maxWeakCount>11</maxWeakCount>
  <stageThreshold>-7.8544622659683228e-01</stageThreshold>
  <weakClassifiers>
    <_>
      <internalNodes>
        0 -1 34104 5.5296212434768677e-02</internalNodes>
      <leafValues>
        4.4318696856498718e-01 -9.3717277050018311e-01</leafValues></_>
    <_>
      <internalNodes>
        0 -1 42619 3.5468200221657753e-03</internalNodes>
      <leafValues>
        -3.2438194751739502e-01 5.4343670606613159e-01</leafValues></_>
    <_>
      <internalNodes>
        0 -1 39505 -1.7145646270364523e-03</internalNodes>
      <leafValues>
        2.3578354716300964e-01 -5.5009740591049194e-01</leafValues></_>
    <_>
      <internalNodes>
        0 -1 38027 -5.0579715752974153e-04</internalNodes>
      <leafValues>
        -7.9038774967193604e-01 1.5261383354663849e-01</leafValues></_>
    <_>
      <internalNodes>
        0 -1 37954 5.6534062605351210e-04</internalNodes>
      <leafValues>
        1.8005751073360443e-01 -7.3455888032913208e-01</leafValues></_>
    <_>
      <internalNodes>
        0 -1 38085 -1.0052962170448154e-04</internalNodes>
      <leafValues>
        -7.2906941175460815e-01 1.4596027135848999e-01</leafValues></_>
    <_>
      <internalNodes>
        0 -1 43308 -6.4303399994969368e-05</internalNodes>
      <leafValues>
        9.5678530633449554e-02 -9.4156986474990845e-01</leafValues></_>
    <_>
      <internalNodes>
        0 -1 49790 -1.8930636579170823e-03</internalNodes>
      <leafValues>
        5.3032130002975464e-01 -2.4047149717807770e-01</leafValues></_>
    <_>
      <internalNodes>
        0 -1 49863 8.3368690684437752e-04</internalNodes>
      <leafValues>
        -5.1049631834030151e-01 2.5175645947456360e-01</leafValues></_>
    <_>
      <internalNodes>
        0 -1 26054 1.4663660898804665e-02</internalNodes>
      <leafValues>
        -2.0985874533653259e-01 6.1212986707687378e-01</leafValues></_>
    <_>
      <internalNodes>
        0 -1 45311 -2.4092293460853398e-04</internalNodes>
      <leafValues>
        1.8948324024677277e-01 -8.5231065750122070e-01</leafValues></_></weakClassifiers></stage14>
</opencv_storage>
