<?xml version="1.0"?>
<opencv_storage>
<stage11>
  <maxWeakCount>7</maxWeakCount>
  <stageThreshold>-6.9340556859970093e-01</stageThreshold>
  <weakClassifiers>
    <_>
      <internalNodes>
        0 -1 40446 6.8234803620725870e-05</internalNodes>
      <leafValues>
        -8.6290323734283447e-01 4.7118958830833435e-01</leafValues></_>
    <_>
      <internalNodes>
        0 -1 48622 -4.9266888527199626e-04</internalNodes>
      <leafValues>
        3.8647499680519104e-01 -5.2113401889801025e-01</leafValues></_>
    <_>
      <internalNodes>
        0 -1 47228 -1.1460250243544579e-03</internalNodes>
      <leafValues>
        -8.4038430452346802e-01 1.4425992965698242e-01</leafValues></_>
    <_>
      <internalNodes>
        0 -1 45501 -5.6076867622323334e-05</internalNodes>
      <leafValues>
        1.4793480932712555e-01 -8.4776920080184937e-01</leafValues></_>
    <_>
      <internalNodes>
        0 -1 47116 -2.0339095499366522e-04</internalNodes>
      <leafValues>
        -8.6953550577163696e-01 1.4247085154056549e-01</leafValues></_>
    <_>
      <internalNodes>
        0 -1 40544 -3.5031634615734220e-04</internalNodes>
      <leafValues>
        2.3857718706130981e-01 -6.6204667091369629e-01</leafValues></_>
    <_>
      <internalNodes>
        0 -1 41178 2.9274839907884598e-03</internalNodes>
      <leafValues>
        -3.2099995017051697e-01 5.5511194467544556e-01</leafValues></_></weakClassifiers></stage11>
</opencv_storage>
