<?xml version="1.0"?>
<opencv_storage>
<stage10>
  <maxWeakCount>7</maxWeakCount>
  <stageThreshold>-7.8888094425201416e-01</stageThreshold>
  <weakClassifiers>
    <_>
      <internalNodes>
        0 -1 38226 -7.9116132110357285e-04</internalNodes>
      <leafValues>
        5.0047940015792847e-01 -7.7707004547119141e-01</leafValues></_>
    <_>
      <internalNodes>
        0 -1 37521 9.4691111007705331e-04</internalNodes>
      <leafValues>
        2.2575624287128448e-01 -8.0372887849807739e-01</leafValues></_>
    <_>
      <internalNodes>
        0 -1 36893 -2.1632411517202854e-03</internalNodes>
      <leafValues>
        3.7486836314201355e-01 -4.7697624564170837e-01</leafValues></_>
    <_>
      <internalNodes>
        0 -1 38085 -1.3735776883549988e-04</internalNodes>
      <leafValues>
        -7.3306220769882202e-01 2.1761508285999298e-01</leafValues></_>
    <_>
      <internalNodes>
        0 -1 45407 -2.6690604499890469e-05</internalNodes>
      <leafValues>
        1.4406481385231018e-01 -9.6072119474411011e-01</leafValues></_>
    <_>
      <internalNodes>
        0 -1 45195 -1.8873028457164764e-03</internalNodes>
      <leafValues>
        -8.3470571041107178e-01 1.7951582372188568e-01</leafValues></_>
    <_>
      <internalNodes>
        0 -1 47322 -1.5090039232745767e-04</internalNodes>
      <leafValues>
        2.4132797122001648e-01 -6.2865877151489258e-01</leafValues></_></weakClassifiers></stage10>
</opencv_storage>
