<?xml version="1.0"?>
<opencv_storage>
<stage7>
  <maxWeakCount>7</maxWeakCount>
  <stageThreshold>-6.5272450447082520e-01</stageThreshold>
  <weakClassifiers>
    <_>
      <internalNodes>
        0 -1 47223 -2.4191589545807801e-05</internalNodes>
      <leafValues>
        5.5398589372634888e-01 -7.1291863918304443e-01</leafValues></_>
    <_>
      <internalNodes>
        0 -1 39554 -8.6586177349090576e-03</internalNodes>
      <leafValues>
        6.0868769884109497e-01 -4.0872377157211304e-01</leafValues></_>
    <_>
      <internalNodes>
        0 -1 45434 4.8127918853424489e-04</internalNodes>
      <leafValues>
        2.5365328788757324e-01 -9.4178199768066406e-01</leafValues></_>
    <_>
      <internalNodes>
        0 -1 40896 -3.9408734301105142e-04</internalNodes>
      <leafValues>
        -8.2595682144165039e-01 2.0881266891956329e-01</leafValues></_>
    <_>
      <internalNodes>
        0 -1 27362 2.9754398856312037e-03</internalNodes>
      <leafValues>
        -3.8809576630592346e-01 4.9882984161376953e-01</leafValues></_>
    <_>
      <internalNodes>
        0 -1 40869 -5.1241065375506878e-04</internalNodes>
      <leafValues>
        2.3473317921161652e-01 -7.8272312879562378e-01</leafValues></_>
    <_>
      <internalNodes>
        0 -1 45060 1.3525871327146888e-04</internalNodes>
      <leafValues>
        -9.3748778104782104e-01 1.5981458127498627e-01</leafValues></_></weakClassifiers></stage7>
</opencv_storage>
