<?xml version="1.0"?>
<opencv_storage>
<stage13>
  <maxWeakCount>11</maxWeakCount>
  <stageThreshold>-9.5507037639617920e-01</stageThreshold>
  <weakClassifiers>
    <_>
      <internalNodes>
        0 -1 45311 -1.3892524875700474e-03</internalNodes>
      <leafValues>
        -6.3749998807907104e-01 4.8269230127334595e-01</leafValues></_>
    <_>
      <internalNodes>
        0 -1 34615 -4.1892658919095993e-03</internalNodes>
      <leafValues>
        -8.4511530399322510e-01 2.0766440033912659e-01</leafValues></_>
    <_>
      <internalNodes>
        0 -1 31180 -1.6655272338539362e-03</internalNodes>
      <leafValues>
        3.8053748011589050e-01 -3.9197158813476562e-01</leafValues></_>
    <_>
      <internalNodes>
        0 -1 42797 3.0682331416755915e-03</internalNodes>
      <leafValues>
        -4.6510103344917297e-01 3.1512969732284546e-01</leafValues></_>
    <_>
      <internalNodes>
        0 -1 48773 2.8093723813071847e-04</internalNodes>
      <leafValues>
        1.8481302261352539e-01 -6.6500496864318848e-01</leafValues></_>
    <_>
      <internalNodes>
        0 -1 34828 -1.7278885934501886e-03</internalNodes>
      <leafValues>
        1.4712630212306976e-01 -7.1309751272201538e-01</leafValues></_>
    <_>
      <internalNodes>
        0 -1 12645 -2.9320919513702393e-01</internalNodes>
      <leafValues>
        -7.4934923648834229e-01 1.4323818683624268e-01</leafValues></_>
    <_>
      <internalNodes>
        0 -1 40730 -3.1126127578318119e-03</internalNodes>
      <leafValues>
        -7.3378914594650269e-01 1.4665795862674713e-01</leafValues></_>
    <_>
      <internalNodes>
        0 -1 41188 -2.5779358111321926e-04</internalNodes>
      <leafValues>
        3.1138113141059875e-01 -3.9394125342369080e-01</leafValues></_>
    <_>
      <internalNodes>
        0 -1 40583 -8.5334815084934235e-03</internalNodes>
      <leafValues>
        4.9861013889312744e-01 -3.1837680935859680e-01</leafValues></_>
    <_>
      <internalNodes>
        0 -1 50851 -9.5899228472262621e-04</internalNodes>
      <leafValues>
        5.3909832239151001e-01 -2.4997226893901825e-01</leafValues></_></weakClassifiers></stage13>
</opencv_storage>
